digraph Tree {
node [shape=box] ;
0 [label="X[1] <= 0.5\nmse = 0.2365\nsamples = 891\nvalue = 0.3838"] ;
1 [label="X[0] <= 1.5\nmse = 0.1532\nsamples = 577\nvalue = 0.1889"] ;
0 -> 1 [labeldistance=2.5, labelangle=45, headlabel="True"] ;
2 [label="X[2] <= 0.5\nmse = 0.2328\nsamples = 122\nvalue = 0.3689"] ;
1 -> 2 ;
3 [label="X[3] <= 1.5\nmse = 0.2209\nsamples = 88\nvalue = 0.3295"] ;
2 -> 3 ;
4 [label="X[3] <= 0.5\nmse = 0.2181\nsamples = 84\nvalue = 0.3214"] ;
3 -> 4 ;
5 [label="X[4] <= 0.5\nmse = 0.2222\nsamples = 75\nvalue = 0.3333"] ;
4 -> 5 ;
6 [label="mse = 0.22\nsamples = 52\nvalue = 0.3269"] ;
5 -> 6 ;
7 [label="mse = 0.2268\nsamples = 23\nvalue = 0.3478"] ;
5 -> 7 ;
8 [label="X[4] <= 0.5\nmse = 0.1728\nsamples = 9\nvalue = 0.2222"] ;
4 -> 8 ;
9 [label="mse = 0.0\nsamples = 3\nvalue = 0.0"] ;
8 -> 9 ;
10 [label="mse = 0.2222\nsamples = 6\nvalue = 0.3333"] ;
8 -> 10 ;
11 [label="X[4] <= 0.5\nmse = 0.25\nsamples = 4\nvalue = 0.5"] ;
3 -> 11 ;
12 [label="mse = 0.0\nsamples = 1\nvalue = 1.0"] ;
11 -> 12 ;
13 [label="mse = 0.2222\nsamples = 3\nvalue = 0.3333"] ;
11 -> 13 ;
14 [label="X[4] <= 1.5\nmse = 0.2491\nsamples = 34\nvalue = 0.4706"] ;
2 -> 14 ;
15 [label="X[3] <= 3.0\nmse = 0.2498\nsamples = 33\nvalue = 0.4848"] ;
14 -> 15 ;
16 [label="X[3] <= 1.5\nmse = 0.25\nsamples = 32\nvalue = 0.5"] ;
15 -> 16 ;
17 [label="X[2] <= 1.5\nmse = 0.2487\nsamples = 28\nvalue = 0.4643"] ;
16 -> 17 ;
18 [label="X[4] <= 0.5\nmse = 0.2469\nsamples = 27\nvalue = 0.4444"] ;
17 -> 18 ;
19 [label="X[3] <= 0.5\nmse = 0.2284\nsamples = 17\nvalue = 0.3529"] ;
18 -> 19 ;
20 [label="mse = 0.2296\nsamples = 14\nvalue = 0.3571"] ;
19 -> 20 ;
21 [label="mse = 0.2222\nsamples = 3\nvalue = 0.3333"] ;
19 -> 21 ;
22 [label="X[3] <= 0.5\nmse = 0.24\nsamples = 10\nvalue = 0.6"] ;
18 -> 22 ;
23 [label="mse = 0.2344\nsamples = 8\nvalue = 0.625"] ;
22 -> 23 ;
24 [label="mse = 0.25\nsamples = 2\nvalue = 0.5"] ;
22 -> 24 ;
25 [label="mse = 0.0\nsamples = 1\nvalue = 1.0"] ;
17 -> 25 ;
26 [label="X[2] <= 2.0\nmse = 0.1875\nsamples = 4\nvalue = 0.75"] ;
16 -> 26 ;
27 [label="mse = 0.0\nsamples = 3\nvalue = 1.0"] ;
26 -> 27 ;
28 [label="mse = 0.0\nsamples = 1\nvalue = 0.0"] ;
26 -> 28 ;
29 [label="mse = 0.0\nsamples = 1\nvalue = 0.0"] ;
15 -> 29 ;
30 [label="mse = 0.0\nsamples = 1\nvalue = 0.0"] ;
14 -> 30 ;
31 [label="X[3] <= 0.5\nmse = 0.1209\nsamples = 455\nvalue = 0.1407"] ;
1 -> 31 ;
32 [label="X[0] <= 2.5\nmse = 0.1012\nsamples = 385\nvalue = 0.1143"] ;
31 -> 32 ;
33 [label="X[2] <= 1.5\nmse = 0.0818\nsamples = 89\nvalue = 0.0899"] ;
32 -> 33 ;
34 [label="X[4] <= 0.5\nmse = 0.0844\nsamples = 86\nvalue = 0.093"] ;
33 -> 34 ;
35 [label="X[2] <= 0.5\nmse = 0.0817\nsamples = 78\nvalue = 0.0897"] ;
34 -> 35 ;
36 [label="mse = 0.0815\nsamples = 67\nvalue = 0.0896"] ;
35 -> 36 ;
37 [label="mse = 0.0826\nsamples = 11\nvalue = 0.0909"] ;
35 -> 37 ;
38 [label="X[2] <= 0.5\nmse = 0.1094\nsamples = 8\nvalue = 0.125"] ;
34 -> 38 ;
39 [label="X[4] <= 1.5\nmse = 0.16\nsamples = 5\nvalue = 0.2"] ;
38 -> 39 ;
40 [label="mse = 0.1875\nsamples = 4\nvalue = 0.25"] ;
39 -> 40 ;
41 [label="mse = 0.0\nsamples = 1\nvalue = 0.0"] ;
39 -> 41 ;
42 [label="mse = 0.0\nsamples = 3\nvalue = 0.0"] ;
38 -> 42 ;
43 [label="mse = 0.0\nsamples = 3\nvalue = 0.0"] ;
33 -> 43 ;
44 [label="X[4] <= 1.5\nmse = 0.1068\nsamples = 296\nvalue = 0.1216"] ;
32 -> 44 ;
45 [label="X[2] <= 1.5\nmse = 0.1101\nsamples = 262\nvalue = 0.126"] ;
44 -> 45 ;
46 [label="X[4] <= 0.5\nmse = 0.1127\nsamples = 255\nvalue = 0.1294"] ;
45 -> 46 ;
47 [label="X[2] <= 0.5\nmse = 0.1081\nsamples = 219\nvalue = 0.1233"] ;
46 -> 47 ;
48 [label="mse = 0.1084\nsamples = 202\nvalue = 0.1238"] ;
47 -> 48 ;
49 [label="mse = 0.1038\nsamples = 17\nvalue = 0.1176"] ;
47 -> 49 ;
50 [label="X[2] <= 0.5\nmse = 0.1389\nsamples = 36\nvalue = 0.1667"] ;
46 -> 50 ;
51 [label="mse = 0.1286\nsamples = 33\nvalue = 0.1515"] ;
50 -> 51 ;
52 [label="mse = 0.2222\nsamples = 3\nvalue = 0.3333"] ;
50 -> 52 ;
53 [label="mse = 0.0\nsamples = 7\nvalue = 0.0"] ;
45 -> 53 ;
54 [label="X[2] <= 1.5\nmse = 0.0804\nsamples = 34\nvalue = 0.0882"] ;
44 -> 54 ;
55 [label="X[2] <= 0.5\nmse = 0.0569\nsamples = 33\nvalue = 0.0606"] ;
54 -> 55 ;
56 [label="mse = 0.0642\nsamples = 29\nvalue = 0.069"] ;
55 -> 56 ;
57 [label="mse = 0.0\nsamples = 4\nvalue = 0.0"] ;
55 -> 57 ;
58 [label="mse = 0.0\nsamples = 1\nvalue = 1.0"] ;
54 -> 58 ;
59 [label="X[2] <= 2.5\nmse = 0.2041\nsamples = 70\nvalue = 0.2857"] ;
31 -> 59 ;
60 [label="X[3] <= 2.5\nmse = 0.2424\nsamples = 46\nvalue = 0.413"] ;
59 -> 60 ;
61 [label="X[4] <= 1.5\nmse = 0.2466\nsamples = 43\nvalue = 0.4419"] ;
60 -> 61 ;
62 [label="X[4] <= 0.5\nmse = 0.2477\nsamples = 42\nvalue = 0.4524"] ;
61 -> 62 ;
63 [label="X[0] <= 2.5\nmse = 0.2443\nsamples = 33\nvalue = 0.4242"] ;
62 -> 63 ;
64 [label="X[3] <= 1.5\nmse = 0.25\nsamples = 16\nvalue = 0.5"] ;
63 -> 64 ;
65 [label="X[2] <= 0.5\nmse = 0.2485\nsamples = 13\nvalue = 0.5385"] ;
64 -> 65 ;
66 [label="mse = 0.0\nsamples = 1\nvalue = 0.0"] ;
65 -> 66 ;
67 [label="X[2] <= 1.5\nmse = 0.2431\nsamples = 12\nvalue = 0.5833"] ;
65 -> 67 ;
68 [label="mse = 0.24\nsamples = 10\nvalue = 0.6"] ;
67 -> 68 ;
69 [label="mse = 0.25\nsamples = 2\nvalue = 0.5"] ;
67 -> 69 ;
70 [label="X[2] <= 0.5\nmse = 0.2222\nsamples = 3\nvalue = 0.3333"] ;
64 -> 70 ;
71 [label="mse = 0.25\nsamples = 2\nvalue = 0.5"] ;
70 -> 71 ;
72 [label="mse = 0.0\nsamples = 1\nvalue = 0.0"] ;
70 -> 72 ;
73 [label="X[2] <= 0.5\nmse = 0.2284\nsamples = 17\nvalue = 0.3529"] ;
63 -> 73 ;
74 [label="X[3] <= 1.5\nmse = 0.24\nsamples = 5\nvalue = 0.4"] ;
73 -> 74 ;
75 [label="mse = 0.2222\nsamples = 3\nvalue = 0.3333"] ;
74 -> 75 ;
76 [label="mse = 0.25\nsamples = 2\nvalue = 0.5"] ;
74 -> 76 ;
77 [label="X[3] <= 1.5\nmse = 0.2222\nsamples = 12\nvalue = 0.3333"] ;
73 -> 77 ;
78 [label="mse = 0.2222\nsamples = 9\nvalue = 0.3333"] ;
77 -> 78 ;
79 [label="mse = 0.2222\nsamples = 3\nvalue = 0.3333"] ;
77 -> 79 ;
80 [label="X[2] <= 0.5\nmse = 0.2469\nsamples = 9\nvalue = 0.5556"] ;
62 -> 80 ;
81 [label="mse = 0.0\nsamples = 2\nvalue = 1.0"] ;
80 -> 81 ;
82 [label="X[0] <= 2.5\nmse = 0.2449\nsamples = 7\nvalue = 0.4286"] ;
80 -> 82 ;
83 [label="mse = 0.0\nsamples = 2\nvalue = 0.0"] ;
82 -> 83 ;
84 [label="mse = 0.24\nsamples = 5\nvalue = 0.6"] ;
82 -> 84 ;
85 [label="mse = 0.0\nsamples = 1\nvalue = 0.0"] ;
61 -> 85 ;
86 [label="mse = 0.0\nsamples = 3\nvalue = 0.0"] ;
60 -> 86 ;
87 [label="X[3] <= 1.5\nmse = 0.0399\nsamples = 24\nvalue = 0.0417"] ;
59 -> 87 ;
88 [label="mse = 0.0\nsamples = 11\nvalue = 0.0"] ;
87 -> 88 ;
89 [label="X[2] <= 4.5\nmse = 0.071\nsamples = 13\nvalue = 0.0769"] ;
87 -> 89 ;
90 [label="X[2] <= 3.5\nmse = 0.16\nsamples = 5\nvalue = 0.2"] ;
89 -> 90 ;
91 [label="mse = 0.0\nsamples = 2\nvalue = 0.0"] ;
90 -> 91 ;
92 [label="mse = 0.2222\nsamples = 3\nvalue = 0.3333"] ;
90 -> 92 ;
93 [label="mse = 0.0\nsamples = 8\nvalue = 0.0"] ;
89 -> 93 ;
94 [label="X[0] <= 2.5\nmse = 0.1914\nsamples = 314\nvalue = 0.742"] ;
0 -> 94 [labeldistance=2.5, labelangle=-45, headlabel="False"] ;
95 [label="X[0] <= 1.5\nmse = 0.0501\nsamples = 170\nvalue = 0.9471"] ;
94 -> 95 ;
96 [label="X[3] <= 1.5\nmse = 0.0309\nsamples = 94\nvalue = 0.9681"] ;
95 -> 96 ;
97 [label="X[4] <= 0.5\nmse = 0.0122\nsamples = 81\nvalue = 0.9877"] ;
96 -> 97 ;
98 [label="mse = 0.0\nsamples = 40\nvalue = 1.0"] ;
97 -> 98 ;
99 [label="X[2] <= 0.5\nmse = 0.0238\nsamples = 41\nvalue = 0.9756"] ;
97 -> 99 ;
100 [label="X[3] <= 0.5\nmse = 0.0434\nsamples = 22\nvalue = 0.9545"] ;
99 -> 100 ;
101 [label="mse = 0.0525\nsamples = 18\nvalue = 0.9444"] ;
100 -> 101 ;
102 [label="mse = 0.0\nsamples = 4\nvalue = 1.0"] ;
100 -> 102 ;
103 [label="mse = 0.0\nsamples = 19\nvalue = 1.0"] ;
99 -> 103 ;
104 [label="X[2] <= 0.5\nmse = 0.1302\nsamples = 13\nvalue = 0.8462"] ;
96 -> 104 ;
105 [label="mse = 0.0\nsamples = 5\nvalue = 1.0"] ;
104 -> 105 ;
106 [label="X[2] <= 1.5\nmse = 0.1875\nsamples = 8\nvalue = 0.75"] ;
104 -> 106 ;
107 [label="mse = 0.25\nsamples = 4\nvalue = 0.5"] ;
106 -> 107 ;
108 [label="mse = 0.0\nsamples = 4\nvalue = 1.0"] ;
106 -> 108 ;
109 [label="X[3] <= 0.5\nmse = 0.0727\nsamples = 76\nvalue = 0.9211"] ;
95 -> 109 ;
110 [label="X[4] <= 0.5\nmse = 0.0988\nsamples = 45\nvalue = 0.8889"] ;
109 -> 110 ;
111 [label="X[2] <= 0.5\nmse = 0.1143\nsamples = 38\nvalue = 0.8684"] ;
110 -> 111 ;
112 [label="mse = 0.0957\nsamples = 28\nvalue = 0.8929"] ;
111 -> 112 ;
113 [label="X[2] <= 2.0\nmse = 0.16\nsamples = 10\nvalue = 0.8"] ;
111 -> 113 ;
114 [label="mse = 0.1728\nsamples = 9\nvalue = 0.7778"] ;
113 -> 114 ;
115 [label="mse = 0.0\nsamples = 1\nvalue = 1.0"] ;
113 -> 115 ;
116 [label="mse = 0.0\nsamples = 7\nvalue = 1.0"] ;
110 -> 116 ;
117 [label="X[3] <= 1.5\nmse = 0.0312\nsamples = 31\nvalue = 0.9677"] ;
109 -> 117 ;
118 [label="X[2] <= 0.5\nmse = 0.0525\nsamples = 18\nvalue = 0.9444"] ;
117 -> 118 ;
119 [label="mse = 0.0\nsamples = 7\nvalue = 1.0"] ;
118 -> 119 ;
120 [label="X[2] <= 1.5\nmse = 0.0826\nsamples = 11\nvalue = 0.9091"] ;
118 -> 120 ;
121 [label="mse = 0.0988\nsamples = 9\nvalue = 0.8889"] ;
120 -> 121 ;
122 [label="mse = 0.0\nsamples = 2\nvalue = 1.0"] ;
120 -> 122 ;
123 [label="mse = 0.0\nsamples = 13\nvalue = 1.0"] ;
117 -> 123 ;
124 [label="X[4] <= 0.5\nmse = 0.25\nsamples = 144\nvalue = 0.5"] ;
94 -> 124 ;
125 [label="X[2] <= 1.5\nmse = 0.2344\nsamples = 88\nvalue = 0.375"] ;
124 -> 125 ;
126 [label="X[3] <= 2.5\nmse = 0.2473\nsamples = 67\nvalue = 0.4478"] ;
125 -> 126 ;
127 [label="X[3] <= 0.5\nmse = 0.2497\nsamples = 60\nvalue = 0.4833"] ;
126 -> 127 ;
128 [label="X[2] <= 0.5\nmse = 0.2466\nsamples = 43\nvalue = 0.4419"] ;
127 -> 128 ;
129 [label="mse = 0.2489\nsamples = 30\nvalue = 0.4667"] ;
128 -> 129 ;
130 [label="mse = 0.2367\nsamples = 13\nvalue = 0.3846"] ;
128 -> 130 ;
131 [label="X[2] <= 0.5\nmse = 0.2422\nsamples = 17\nvalue = 0.5882"] ;
127 -> 131 ;
132 [label="X[3] <= 1.5\nmse = 0.2222\nsamples = 9\nvalue = 0.6667"] ;
131 -> 132 ;
133 [label="mse = 0.1875\nsamples = 4\nvalue = 0.75"] ;
132 -> 133 ;
134 [label="mse = 0.24\nsamples = 5\nvalue = 0.6"] ;
132 -> 134 ;
135 [label="X[3] <= 1.5\nmse = 0.25\nsamples = 8\nvalue = 0.5"] ;
131 -> 135 ;
136 [label="mse = 0.2449\nsamples = 7\nvalue = 0.5714"] ;
135 -> 136 ;
137 [label="mse = 0.0\nsamples = 1\nvalue = 0.0"] ;
135 -> 137 ;
138 [label="X[3] <= 4.5\nmse = 0.1224\nsamples = 7\nvalue = 0.1429"] ;
126 -> 138 ;
139 [label="mse = 0.0\nsamples = 3\nvalue = 0.0"] ;
138 -> 139 ;
140 [label="X[3] <= 5.5\nmse = 0.1875\nsamples = 4\nvalue = 0.25"] ;
138 -> 140 ;
141 [label="X[2] <= 0.5\nmse = 0.2222\nsamples = 3\nvalue = 0.3333"] ;
140 -> 141 ;
142 [label="mse = 0.0\nsamples = 1\nvalue = 0.0"] ;
141 -> 142 ;
143 [label="mse = 0.25\nsamples = 2\nvalue = 0.5"] ;
141 -> 143 ;
144 [label="mse = 0.0\nsamples = 1\nvalue = 0.0"] ;
140 -> 144 ;
145 [label="X[3] <= 0.5\nmse = 0.1224\nsamples = 21\nvalue = 0.1429"] ;
125 -> 145 ;
146 [label="X[2] <= 2.5\nmse = 0.25\nsamples = 2\nvalue = 0.5"] ;
145 -> 146 ;
147 [label="mse = 0.0\nsamples = 1\nvalue = 0.0"] ;
146 -> 147 ;
148 [label="mse = 0.0\nsamples = 1\nvalue = 1.0"] ;
146 -> 148 ;
149 [label="X[2] <= 3.5\nmse = 0.0942\nsamples = 19\nvalue = 0.1053"] ;
145 -> 149 ;
150 [label="mse = 0.0\nsamples = 9\nvalue = 0.0"] ;
149 -> 150 ;
151 [label="X[2] <= 4.5\nmse = 0.16\nsamples = 10\nvalue = 0.2"] ;
149 -> 151 ;
152 [label="mse = 0.2222\nsamples = 6\nvalue = 0.3333"] ;
151 -> 152 ;
153 [label="mse = 0.0\nsamples = 4\nvalue = 0.0"] ;
151 -> 153 ;
154 [label="X[3] <= 4.0\nmse = 0.2114\nsamples = 56\nvalue = 0.6964"] ;
124 -> 154 ;
155 [label="X[2] <= 1.5\nmse = 0.2063\nsamples = 55\nvalue = 0.7091"] ;
154 -> 155 ;
156 [label="X[3] <= 0.5\nmse = 0.2153\nsamples = 51\nvalue = 0.6863"] ;
155 -> 156 ;
157 [label="X[4] <= 1.5\nmse = 0.1907\nsamples = 39\nvalue = 0.7436"] ;
156 -> 157 ;
158 [label="X[2] <= 0.5\nmse = 0.24\nsamples = 10\nvalue = 0.6"] ;
157 -> 158 ;
159 [label="mse = 0.16\nsamples = 5\nvalue = 0.8"] ;
158 -> 159 ;
160 [label="mse = 0.24\nsamples = 5\nvalue = 0.4"] ;
158 -> 160 ;
161 [label="X[2] <= 0.5\nmse = 0.1641\nsamples = 29\nvalue = 0.7931"] ;
157 -> 161 ;
162 [label="mse = 0.1824\nsamples = 25\nvalue = 0.76"] ;
161 -> 162 ;
163 [label="mse = 0.0\nsamples = 4\nvalue = 1.0"] ;
161 -> 163 ;
164 [label="X[4] <= 1.5\nmse = 0.25\nsamples = 12\nvalue = 0.5"] ;
156 -> 164 ;
165 [label="X[3] <= 1.5\nmse = 0.24\nsamples = 10\nvalue = 0.6"] ;
164 -> 165 ;
166 [label="X[2] <= 0.5\nmse = 0.24\nsamples = 5\nvalue = 0.4"] ;
165 -> 166 ;
167 [label="mse = 0.2222\nsamples = 3\nvalue = 0.3333"] ;
166 -> 167 ;
168 [label="mse = 0.25\nsamples = 2\nvalue = 0.5"] ;
166 -> 168 ;
169 [label="X[3] <= 2.5\nmse = 0.16\nsamples = 5\nvalue = 0.8"] ;
165 -> 169 ;
170 [label="mse = 0.1875\nsamples = 4\nvalue = 0.75"] ;
169 -> 170 ;
171 [label="mse = 0.0\nsamples = 1\nvalue = 1.0"] ;
169 -> 171 ;
172 [label="mse = 0.0\nsamples = 2\nvalue = 0.0"] ;
164 -> 172 ;
173 [label="mse = 0.0\nsamples = 4\nvalue = 1.0"] ;
155 -> 173 ;
174 [label="mse = 0.0\nsamples = 1\nvalue = 0.0"] ;
154 -> 174 ;
}